{"learner":{"attributes":{"scikit_learn":"{\"_estimator_type\": \"regressor\"}"},"feature_names":["CRIM","ZN","INDUS","CHAS","NOX","RM","AGE","DIS","RAD","TAX","PTRATIO","B","LSTAT"],"feature_types":["float","float","float","int","float","float","float","float","int","float","float","float","float"],"gradient_booster":{"model":{"cats":{"enc":[],"feature_segments":[],"sorted_idx":[]},"gbtree_model_param":{"num_parallel_tree":"1","num_trees":"10"},"iteration_indptr":[0,1,2,3,4,5,6,7,8,9,10],"tree_info":[0,0,0,0,0,0,0,0,0,0],"trees":[{"base_weights":[-0E0,5.876054E0,-3.7049832E0,9.679973E0,3.1172576E0,-1.7843968E0,-6.3573537E0,1.3074728E0,7.612477E0,5.9611654E0,2.953952E-1,-5.6351304E-1,-8.7461245E-1,6.613118E0,-7.7911963E0,-0E0,8.153378E-1,7.706579E-1,1.2899003E0,-0E0,5.60231E-1,7.703079E0,-1.6252612E0,-0E0,1.1302887E0,-9.5522994E-1,-1.9133464E0,2.3564275E-2,-0E0,2.469554E-1,-0E0,2.2570439E-1,-8.7163165E-2,1.8022772E0,-2.1572287E-1,-2.4752484E-1,-0E0,2.735643E-1,-3.2976905E-1,-2.1809283E-1,-0E0],"categories":[],"categories_nodes":[],"categories_segments":[],"categories_sizes":[],"default_left":[0,0,0,0,0,0,0,0,0,0,0,0,0,0,0,0,0,0,0,0,0,0,0,0,0,0,0,0,0,0,0,0,0,0,0,0,0,0,0,0,0],"id":0,"left_children":[1,3,5,7,9,11,13,-1,15,17,19,-1,21,23,25,27,-1,-1,29,31,-1,33,35,37,-1,-1,39,-1,-1,-1,-1,-1,-1,-1,-1,-1,-1,-1,-1,-1,-1],"loss_changes":[8.8388955E3,1.4894482E3,1.1756709E3,1.4279004E2,6.9003436E2,4.4846783E2,1.9602622E3,0E0,1.0931177E2,2.6699255E2,8.97947E1,0E0,7.437179E2,3.2919818E2,8.2975586E2,1.6658251E-1,0E0,0E0,1.1634539E1,9.357591E1,0E0,1.1133328E3,1.5574454E2,5.5075516E1,0E0,0E0,2.5110474E0,0E0,0E0,0E0,0E0,0E0,0E0,0E0,0E0,0E0,0E0,0E0,0E0,0E0,0E0],"parents":[2147483647,0,0,1,1,2,2,3,3,4,4,5,5,6,6,8,8,9,9,10,10,12,12,13,13,14,14,15,15,18,18,19,19,21,21,22,22,23,23,26,26],"right_children":[2,4,6,8,10,12,14,-1,16,18,20,-1,22,24,26,28,-1,-1,30,32,-1,34,36,38,-1,-1,40,-1,-1,-1,-1,-1,-1,-1,-1,-1,-1,-1,-1,-1,-1],"split_conditions":[6.91E0,4.8122E0,7E0,2.8965E0,3.97E0,1.8589E0,1.358E0,1.3074728E0,3.0992E0,7.8265E0,8.7921E0,-5.6351304E-1,2.0527E0,1.2024E0,2.4527E0,3.048E0,8.153378E-1,7.706579E-1,1.47E0,5.5027E0,5.60231E-1,2.189E1,1.059E1,1.1742E0,1.1302887E0,-9.5522994E-1,3.1992E0,2.3564275E-2,-0E0,2.469554E-1,-0E0,2.2570439E-1,-8.7163165E-2,1.8022772E0,-2.1572287E-1,-2.4752484E-1,-0E0,2.735643E-1,-3.2976905E-1,-2.1809283E-1,-0E0],"split_indices":[2,7,8,7,2,7,7,0,7,7,7,0,7,7,7,7,0,0,2,7,0,2,2,7,0,0,7,0,0,0,0,0,0,0,0,0,0,0,0,0,0],"split_type":[0,0,0,0,0,0,0,0,0,0,0,0,0,0,0,0,0,0,0,0,0,0,0,0,0,0,0,0,0,0,0,0,0,0,0,0,0,0,0,0,0],"sum_hessian":[4.04E2,1.56E2,2.48E2,6.3E1,9.3E1,1.47E2,1.01E2,2E1,4.3E1,4.4E1,4.9E1,2.5E1,1.22E2,9E0,9.2E1,4E0,3.9E1,3E1,1.4E1,4.7E1,2E0,8E0,1.14E2,4E0,5E0,6.9E1,2.3E1,2E0,2E0,5E0,9E0,1.2E1,3.5E1,4E0,4E0,7.4E1,4E1,2E0,2E0,1.8E1,5E0],"tree_param":{"num_deleted":"0","num_feature":"13","num_nodes":"41","size_leaf_vector":"1"}},{"base_weights":[-0E0,1.9453312E0,-5.726986E0,-4.2068264E-1,2.5962882E0,-6.9515743E0,6.588383E0,4.8133354E0,1.3192499E0,-9.331035E-1,-5.8092914E0,7.396737E-1,-0E0,-2.8131497E-1,8.211302E0,5.0748553E0,-4.7922034E-2,-0E0,-6.0859475E0,-2.079153E-1,1.0305889E-1,3.9413974E-1,9.709324E-1,1.5944993E-1,5.868797E-1,-4.948249E-2,2.7744487E-1,-4.571601E-1,-8.192002E-1],"categories":[],"categories_nodes":[],"categories_segments":[],"categories_sizes":[],"default_left":[0,0,0,0,0,0,0,0,0,0,0,0,0,0,0,0,0,0,0,0,0,0,0,0,0,0,0,0,0],"id":1,"left_children":[1,3,5,-1,7,9,11,13,15,-1,17,-1,-1,19,21,23,25,-1,27,-1,-1,-1,-1,-1,-1,-1,-1,-1,-1],"loss_changes":[4.4958643E3,1.2122728E3,1.5877202E3,0E0,7.165814E2,4.988379E1,4.703253E1,1.7781323E3,9.7473303E2,0E0,1.5299414E2,0E0,0E0,1.04613434E2,2.0900903E2,5.416919E1,1.4381029E2,0E0,4.8596436E1,0E0,0E0,0E0,0E0,0E0,0E0,0E0,0E0,0E0,0E0],"parents":[2147483647,0,0,1,1,2,2,4,4,5,5,6,6,7,7,8,8,10,10,13,13,14,14,15,15,16,16,18,18],"right_children":[2,4,6,-1,8,10,12,14,16,-1,18,-1,-1,20,22,24,26,-1,28,-1,-1,-1,-1,-1,-1,-1,-1,-1,-1],"split_conditions":[2.4E1,3.5304E2,1E0,-4.2068264E-1,3.905E2,1.3142E2,3.9211E2,5E0,4E0,-9.331035E-1,2.1097E2,7.396737E-1,-0E0,3.8284E2,3.7688E2,2E0,7E0,-0E0,3.9623E2,-2.079153E-1,1.0305889E-1,3.9413974E-1,9.709324E-1,1.5944993E-1,5.868797E-1,-4.948249E-2,2.7744487E-1,-4.571601E-1,-8.192002E-1],"split_indices":[8,11,3,0,11,11,11,8,8,0,11,0,0,11,11,8,8,0,11,0,0,0,0,0,0,0,0,0,0],"split_type":[0,0,0,0,0,0,0,0,0,0,0,0,0,0,0,0,0,0,0,0,0,0,0,0,0,0,0,0,0],"sum_hessian":[4.04E2,3.03E2,1.01E2,2.7E1,2.76E2,9.3E1,8E0,9.7E1,1.79E2,2.5E1,6.8E1,7E0,1E0,3.8E1,5.9E1,4.9E1,1.3E2,2E0,6.6E1,1.9E1,1.9E1,1.8E1,4.1E1,1.2E1,3.7E1,1.16E2,1.4E1,4.3E1,2.3E1],"tree_param":{"num_deleted":"0","num_feature":"13","num_nodes":"29","size_leaf_vector":"1"}},{"base_weights":[-0E0,1.6118189E0,-7.6145406E0,3.4879425E0,4.650999E-1,-8.1533396E-1,3.8030827E0,4.825701E0,2.3158708E0,-2.396404E0,2.0142112E0,8.0951136E-1,-0E0,9.657457E-1,6.1984997E0,6.753058E-1,3.233529E-1,1.8298471E0,-3.599749E0,3.6352654E0,-1.0924772E0,6.289024E-1,-9.43039E-2,-0E0,6.4927983E-1,1.834697E-1,-1.4929049E-2,-0E0,2.0288351E-1,-3.9402714E-1,-0E0,-9.613768E-2,8.562929E-1,-2.775924E-1,1.4533652E-1],"categories":[],"categories_nodes":[],"categories_segments":[],"categories_sizes":[],"default_left":[0,0,0,0,0,0,0,0,0,0,0,0,0,0,0,0,0,0,0,0,0,0,0,0,0,0,0,0,0,0,0,0,0,0,0],"id":2,"left_children":[1,3,5,7,9,-1,11,13,15,17,19,-1,-1,21,23,25,-1,27,29,31,33,-1,-1,-1,-1,-1,-1,-1,-1,-1,-1,-1,-1,-1,-1],"loss_changes":[4.931601E3,6.817131E2,5.0513647E2,1.1183423E2,9.451888E2,0E0,8.767142E1,2.0321533E2,6.712244E1,3.9553763E2,7.3949097E2,0E0,0E0,2.321275E2,9.603967E1,4.6764885E1,0E0,7.4013023E0,1.0490796E2,2.2360647E3,2.1869212E2,0E0,0E0,0E0,0E0,0E0,0E0,0E0,0E0,0E0,0E0,0E0,0E0,0E0,0E0],"parents":[2147483647,0,0,1,1,2,2,3,3,4,4,6,6,7,7,8,8,9,9,10,10,13,13,14,14,15,15,17,17,18,18,19,19,20,20],"right_children":[2,4,6,8,10,-1,12,14,16,18,20,-1,-1,22,24,26,-1,28,30,32,34,-1,-1,-1,-1,-1,-1,-1,-1,-1,-1,-1,-1,-1,-1],"split_conditions":[6.71772E0,1.0084E-1,1E0,4E0,5E0,-8.1533396E-1,8.49213E0,2E0,5.36E-2,1.4231E-1,2.24236E0,8.0951136E-1,-0E0,1.538E-2,1.432E-2,4.203E-2,3.233529E-1,2E0,1E0,2.8955E-1,4.89822E0,6.289024E-1,-9.43039E-2,-0E0,6.4927983E-1,1.834697E-1,-1.4929049E-2,-0E0,2.0288351E-1,-3.9402714E-1,-0E0,-9.613768E-2,8.562929E-1,-2.775924E-1,1.4533652E-1],"split_indices":[0,0,3,8,8,0,0,8,0,0,0,0,0,0,0,0,0,8,3,0,0,0,0,0,0,0,0,0,0,0,0,0,0,0,0],"split_type":[0,0,0,0,0,0,0,0,0,0,0,0,0,0,0,0,0,0,0,0,0,0,0,0,0,0,0,0,0,0,0,0,0,0,0],"sum_hessian":[4.04E2,3.35E2,6.9E1,1.23E2,2.12E2,6.7E1,2E0,5.2E1,7.1E1,7.2E1,1.4E2,1E0,1E0,1.6E1,3.6E1,3E1,4.1E1,1.4E1,5.8E1,9.4E1,4.6E1,5E0,1.1E1,1E0,3.5E1,1.7E1,1.3E1,1E0,1.3E1,5.5E1,3E0,4.8E1,4.6E1,3E1,1.6E1],"tree_param":{"num_deleted":"0","num_feature":"13","num_nodes":"35","size_leaf_vector":"1"}},{"base_weights":[3.995994E-3,2.2369573E0,-4.6072125E0,5.2849016E0,1.0387841E0,-5.4247956E0,5.9672213E0,3.2480476E0,9.061214E-1,3.3847659E0,-0E0,-3.5022602E0,-6.515363E-1,-0E0,9.9392575E-1,7.5547395E0,-9.645958E-1,6.03866E0,2.3533518E0,3.30518E-1,-4.0024725E-1,-3.7222745E0,-0E0,-3.2192625E-2,1.0827669E0,1.5333779E-2,-1.7142628E-1,-0E0,7.2667116E-1,1.4315541E-1,6.2510586E-1,1.5033627E-2,6.786982E-1,-0E0,-3.7809333E-1],"categories":[],"categories_nodes":[],"categories_segments":[],"categories_sizes":[],"default_left":[0,0,0,0,0,0,0,0,0,0,0,0,0,0,0,0,0,0,0,0,0,0,0,0,0,0,0,0,0,0,0,0,0,0,0],"id":3,"left_children":[1,3,5,7,9,11,13,15,-1,17,19,21,-1,-1,-1,23,25,27,29,31,-1,33,-1,-1,-1,-1,-1,-1,-1,-1,-1,-1,-1,-1,-1],"loss_changes":[4.156747E3,9.3556335E2,1.1595037E3,4.2436084E2,4.9341803E2,1.348938E2,2.7226346E2,1.01660175E3,0E0,7.15791E1,1.9041911E2,2.4053833E1,0E0,0E0,0E0,8.045967E2,3.7662132E1,7.034027E1,9.027707E1,8.084029E1,0E0,5.9503784E0,0E0,0E0,0E0,0E0,0E0,0E0,0E0,0E0,0E0,0E0,0E0,0E0,0E0],"parents":[2147483647,0,0,1,1,2,2,3,3,4,4,5,5,6,6,7,7,9,9,10,10,11,11,15,15,16,16,17,17,18,18,19,19,21,21],"right_children":[2,4,6,8,10,12,14,16,-1,18,20,22,-1,-1,-1,24,26,28,30,32,-1,34,-1,-1,-1,-1,-1,-1,-1,-1,-1,-1,-1,-1,-1],"split_conditions":[4.11E2,2.7E2,1E0,2.44E2,4.15E1,8.86E1,8.93E1,2.23E2,9.061214E-1,1.72E1,9.83E1,8.8E1,-6.515363E-1,-0E0,9.9392575E-1,1.93E2,2.19E1,3.04E2,3.98E2,9.82E1,-4.0024725E-1,1.75E1,-0E0,-3.2192625E-2,1.0827669E0,1.5333779E-2,-1.7142628E-1,-0E0,7.2667116E-1,1.4315541E-1,6.2510586E-1,1.5033627E-2,6.786982E-1,-0E0,-3.7809333E-1],"split_indices":[9,9,3,9,6,6,6,9,0,6,6,6,0,0,0,9,6,9,9,6,0,6,0,0,0,0,0,0,0,0,0,0,0,0,0],"split_type":[0,0,0,0,0,0,0,0,0,0,0,0,0,0,0,0,0,0,0,0,0,0,0,0,0,0,0,0,0,0,0,0,0,0,0],"sum_hessian":[4.04E2,2.74E2,1.3E2,7.4E1,2E2,1.22E2,8E0,5.1E1,2.3E1,6.1E1,1.39E2,4.9E1,7.3E1,3E0,5E0,2.6E1,2.5E1,1.3E1,4.8E1,1.29E2,1E1,4.5E1,4E0,7E0,1.9E1,5E0,2E1,3E0,1E1,4.2E1,6E0,1.28E2,1E0,1E0,4.4E1],"tree_param":{"num_deleted":"0","num_feature":"13","num_nodes":"35","size_leaf_vector":"1"}},{"base_weights":[1.8223355E-2,1.4606286E0,-4.1828494E0,2.3219883E0,-1.986068E0,-7.2753507E-1,-2.9544353E0,-2.5939436E0,2.650319E0,-4.703872E-1,-0E0,-1.2350733E0,-6.0813055E0,-3.1255035E0,-0E0,4.8546653E0,1.7999407E0,-2.4573338E0,1.5827932E0,-2.3216338E0,-0E0,-0E0,-7.5532064E0,-0E0,-3.5291433E-1,2.695016E-2,7.3596466E-1,3.173208E-1,2.5752831E-2,-0E0,-2.8684136E-1,7.10861E-1,-2.0203578E-1,-0E0,-2.9518256E-1,6.7414975E-1,-1.9944595E-1,-0E0,-7.753112E-1],"categories":[],"categories_nodes":[],"categories_segments":[],"categories_sizes":[],"default_left":[0,0,0,0,0,0,0,0,0,0,0,0,0,0,0,0,0,0,0,0,0,0,0,0,0,0,0,0,0,0,0,0,0,0,0,0,0,0,0],"id":4,"left_children":[1,3,5,7,9,-1,11,13,15,-1,17,19,21,23,-1,25,27,29,31,33,35,-1,37,-1,-1,-1,-1,-1,-1,-1,-1,-1,-1,-1,-1,-1,-1,-1,-1],"loss_changes":[2.4330454E3,9.1049976E2,2.6369275E2,4.0449512E2,3.204367E2,0E0,3.3329443E2,3.2794426E1,3.6148108E2,0E0,1.3965402E2,5.3903084E1,2.1646173E2,2.2464203E1,0E0,6.223556E2,3.3131445E2,2.24225E1,5.0327222E2,6.565567E1,3.6815558E2,0E0,1.0853271E0,0E0,0E0,0E0,0E0,0E0,0E0,0E0,0E0,0E0,0E0,0E0,0E0,0E0,0E0,0E0,0E0],"parents":[2147483647,0,0,1,1,2,2,3,3,4,4,6,6,7,7,8,8,10,10,11,11,12,12,13,13,15,15,16,16,17,17,18,18,19,19,20,20,22,22],"right_children":[2,4,6,8,10,-1,12,14,16,-1,18,20,22,24,-1,26,28,30,32,34,36,-1,38,-1,-1,-1,-1,-1,-1,-1,-1,-1,-1,-1,-1,-1,-1,-1,-1],"split_conditions":[2.4E1,9.27E1,1.3142E2,3.5185E2,5E0,-7.2753507E-1,3.9552E2,8.9E1,3.8845E2,-4.703872E-1,3.5798E2,3.7031E2,8.45E1,9.9E0,-0E0,5E0,5.43E1,9.34E1,3.897E2,2.1097E2,3.7611E2,-0E0,3.9623E2,-0E0,-3.5291433E-1,2.695016E-2,7.3596466E-1,3.173208E-1,2.5752831E-2,-0E0,-2.8684136E-1,7.10861E-1,-2.0203578E-1,-0E0,-2.9518256E-1,6.7414975E-1,-1.9944595E-1,-0E0,-7.753112E-1],"split_indices":[8,6,11,11,8,0,11,6,11,0,11,11,6,6,0,8,6,6,11,11,11,0,11,0,0,0,0,0,0,0,0,0,0,0,0,0,0,0,0],"split_type":[0,0,0,0,0,0,0,0,0,0,0,0,0,0,0,0,0,0,0,0,0,0,0,0,0,0,0,0,0,0,0,0,0,0,0,0,0,0,0],"sum_hessian":[4.04E2,3.03E2,1.01E2,2.45E2,5.8E1,2.5E1,7.6E1,1.3E1,2.32E2,2.4E1,3.4E1,5.2E1,2.4E1,1.2E1,1E0,6E1,1.72E2,1.3E1,2.1E1,2.4E1,2.8E1,5E0,1.9E1,1E0,1.1E1,2.3E1,3.7E1,8.7E1,8.5E1,1E0,1.2E1,9E0,1.2E1,2E0,2.2E1,5E0,2.3E1,1E0,1.8E1],"tree_param":{"num_deleted":"0","num_feature":"13","num_nodes":"39","size_leaf_vector":"1"}},{"base_weights":[1.0441227E-2,1.258788E0,-5.8389153E0,4.6092424E0,2.5671607E-1,2.8244193E0,-6.282314E0,2.8033206E0,7.913354E0,7.7422585E0,4.2046916E-2,7.3409873E-1,-0E0,-6.554354E0,-0E0,6.706003E0,-9.7266936E-1,8.7834007E-1,-0E0,-2.6075372E-1,1.606904E0,8.768374E-1,-2.6048234E0,-0E0,-6.7463303E0,-1.02854505E-1,9.441043E-1,4.6404838E-3,-1.5423924E-1,-4.4362155E-1,1.2949811E-1,-3.6751887E-1,-1.02599084E-1,-1.3176452E-1,-0E0,-0E0,-6.873215E-1],"categories":[],"categories_nodes":[],"categories_segments":[],"categories_sizes":[],"default_left":[0,0,0,0,0,0,0,0,0,0,0,0,0,0,0,0,0,0,0,0,0,0,0,0,0,0,0,0,0,0,0,0,0,0,0,0,0],"id":5,"left_children":[1,3,5,7,9,11,13,15,17,19,21,-1,-1,23,-1,25,27,-1,-1,-1,-1,29,31,33,35,-1,-1,-1,-1,-1,-1,-1,-1,-1,-1,-1,-1],"loss_changes":[2.9188691E3,1.0782422E3,3.2121436E2,3.1817212E2,3.4284314E2,8.384815E1,1.0858374E2,8.3015356E2,1.1720239E2,6.9359863E2,5.5286676E2,0E0,0E0,2.9433105E1,0E0,6.6500146E2,3.012679E1,0E0,0E0,0E0,0E0,4.1643463E2,4.892325E1,5.2085657E0,1.26604E1,0E0,0E0,0E0,0E0,0E0,0E0,0E0,0E0,0E0,0E0,0E0,0E0],"parents":[2147483647,0,0,1,1,2,2,3,3,4,4,5,5,6,6,7,7,8,8,9,9,10,10,13,13,15,15,16,16,21,21,22,22,23,23,24,24],"right_children":[2,4,6,8,10,12,14,16,18,20,22,-1,-1,24,-1,26,28,-1,-1,-1,-1,30,32,34,36,-1,-1,-1,-1,-1,-1,-1,-1,-1,-1,-1,-1],"split_conditions":[6.71772E0,2.7E2,1.1742E0,2.44E2,1.358E0,8.49213E0,2.7986E0,2.23E2,7.258E-1,3.47428E0,4.11E2,7.3409873E-1,-0E0,1.3325E0,-0E0,2.2834E0,4.3996E0,8.7834007E-1,-0E0,-2.6075372E-1,1.606904E0,1.7572E0,2.4775E0,1.2024E0,7.05042E0,-1.02854505E-1,9.441043E-1,4.6404838E-3,-1.5423924E-1,-4.4362155E-1,1.2949811E-1,-3.6751887E-1,-1.02599084E-1,-1.3176452E-1,-0E0,-0E0,-6.873215E-1],"split_indices":[0,9,7,9,7,0,7,9,0,0,9,0,0,7,0,7,7,0,0,0,0,7,7,7,0,0,0,0,0,0,0,0,0,0,0,0,0],"split_type":[0,0,0,0,0,0,0,0,0,0,0,0,0,0,0,0,0,0,0,0,0,0,0,0,0,0,0,0,0,0,0,0,0,0,0,0,0],"sum_hessian":[4.04E2,3.35E2,6.9E1,7.4E1,2.61E2,2E0,6.7E1,5.1E1,2.3E1,5E0,2.56E2,1E0,1E0,6.4E1,3E0,2.6E1,2.5E1,2E1,3E0,2E0,3E0,1.98E2,5.8E1,3E0,6.1E1,6E0,2E1,3E0,2.2E1,1.2E1,1.86E2,3E1,2.8E1,2E0,1E0,2E0,5.9E1],"tree_param":{"num_deleted":"0","num_feature":"13","num_nodes":"37","size_leaf_vector":"1"}},{"base_weights":[6.651005E-3,1.6787897E0,-3.4272788E0,4.176543E0,6.8868876E-1,-6.0007375E-1,-2.669381E0,2.5170586E0,7.181404E0,-3.074995E0,1.2243091E0,-1.6013451E0,-4.7766714E0,6.0295224E0,-8.4269434E-1,1.0536537E1,3.3179848E0,-0E0,-3.28698E-1,5.318905E-1,5.2573504E0,4.085916E-2,-1.7989953E0,-0E0,-5.8290887E0,-2.6018823E-2,8.743931E-1,-0E0,-1.7403284E-1,1.0001331E-1,1.2737672E0,-0E0,4.1769066E-1,1.166208E-1,-3.1252083E-1,8.639246E-1,-0E0,-3.9957613E-1,-1.13740586E-1,-0E0,-5.9575003E-1],"categories":[],"categories_nodes":[],"categories_segments":[],"categories_sizes":[],"default_left":[0,0,0,0,0,0,0,0,0,0,0,0,0,0,0,0,0,0,0,0,0,0,0,0,0,0,0,0,0,0,0,0,0,0,0,0,0,0,0,0,0],"id":6,"left_children":[1,3,5,7,9,-1,11,13,15,17,19,21,23,25,27,29,31,-1,-1,33,35,-1,37,-1,39,-1,-1,-1,-1,-1,-1,-1,-1,-1,-1,-1,-1,-1,-1,-1,-1],"loss_changes":[2.313782E3,6.28554E2,1.527854E2,2.5892847E2,3.904549E2,0E0,1.6714087E2,6.7060187E2,1.375896E2,2.0214584E1,4.3917816E2,4.443393E1,1.1932599E2,5.480792E2,3.6053886E1,8.078259E1,3.778572E1,0E0,0E0,3.4593753E2,4.5619513E2,0E0,5.0218582E1,0E0,2.3464355E0,0E0,0E0,0E0,0E0,0E0,0E0,0E0,0E0,0E0,0E0,0E0,0E0,0E0,0E0,0E0,0E0],"parents":[2147483647,0,0,1,1,2,2,3,3,4,4,6,6,7,7,8,8,9,9,10,10,11,11,12,12,13,13,14,14,15,15,16,16,19,19,20,20,22,22,24,24],"right_children":[2,4,6,8,10,-1,12,14,16,18,20,22,24,26,28,30,32,-1,-1,34,36,-1,38,-1,40,-1,-1,-1,-1,-1,-1,-1,-1,-1,-1,-1,-1,-1,-1,-1,-1],"split_conditions":[4.11E2,2.7E2,1.3142E2,2.44E2,3.5304E2,-6.0007375E-1,3.956E2,2.23E2,3.8971E2,9.9E0,3.98E2,2.1097E2,8.45E1,1.93E2,3.9094E2,3.843E2,3.9243E2,-0E0,-3.28698E-1,8.86E1,3.905E2,4.085916E-2,3.3004E2,-0E0,4.37E2,-2.6018823E-2,8.743931E-1,-0E0,-1.7403284E-1,1.0001331E-1,1.2737672E0,-0E0,4.1769066E-1,1.166208E-1,-3.1252083E-1,8.639246E-1,-0E0,-3.9957613E-1,-1.13740586E-1,-0E0,-5.9575003E-1],"split_indices":[9,9,11,9,11,0,11,9,11,6,9,11,6,9,11,11,11,0,0,6,11,0,11,0,9,0,0,0,0,0,0,0,0,0,0,0,0,0,0,0,0],"split_type":[0,0,0,0,0,0,0,0,0,0,0,0,0,0,0,0,0,0,0,0,0,0,0,0,0,0,0,0,0,0,0,0,0,0,0,0,0,0,0,0,0],"sum_hessian":[4.04E2,2.74E2,1.3E2,7.4E1,2E2,2.5E1,1.05E2,5.1E1,2.3E1,2.2E1,1.78E2,7.4E1,3.1E1,2.6E1,2.5E1,1E1,1.3E1,1E0,2.1E1,1.55E2,2.3E1,2E0,7.2E1,7E0,2.4E1,7E0,1.9E1,8E0,1.7E1,3E0,7E0,3E0,1E1,1.35E2,2E1,1.4E1,9E0,1.2E1,6E1,1E0,2.3E1],"tree_param":{"num_deleted":"0","num_feature":"13","num_nodes":"41","size_leaf_vector":"1"}},{"base_weights":[3.4162167E-3,2.7183316E0,-2.7429638E0,3.3518875E0,-4.389639E-1,-1.3624616E0,-5.373643E0,8.019182E0,2.0749178E0,-2.1796467E0,5.704941E0,-5.900043E0,-0E0,-0E0,8.6005765E-1,2.9023068E0,-1.2181356E0,4.9185726E-1,-2.800248E-1,1.263374E0,1.1061457E-1,-7.27961E-1,-3.7555367E-1,1.6535732E-1,4.86331E-1,-1.5938812E-1,-0E0,1.1867242E-1,-0E0,-0E0,8.926959E-2],"categories":[],"categories_nodes":[],"categories_segments":[],"categories_sizes":[],"default_left":[0,0,0,0,0,0,0,0,0,0,0,0,0,0,0,0,0,0,0,0,0,0,0,0,0,0,0,0,0,0,0],"id":7,"left_children":[1,3,5,7,-1,9,11,13,15,17,19,21,-1,-1,-1,23,25,27,-1,-1,29,-1,-1,-1,-1,-1,-1,-1,-1,-1,-1],"loss_changes":[3.0269666E3,9.32015E2,6.516489E2,1.0207788E3,0E0,7.568576E2,1.4800171E2,1.5493286E2,4.3724634E2,2.283877E2,3.750645E2,3.6860596E1,0E0,0E0,0E0,2.3288574E2,2.3020123E1,1.7452635E1,0E0,0E0,3.0775037E0,0E0,0E0,0E0,0E0,0E0,0E0,0E0,0E0,0E0,0E0],"parents":[2147483647,0,0,1,1,2,2,3,3,5,5,6,6,7,7,8,8,9,9,10,10,11,11,15,15,16,16,17,17,20,20],"right_children":[2,4,6,8,-1,10,12,14,16,18,20,22,-1,-1,-1,24,26,28,-1,-1,30,-1,-1,-1,-1,-1,-1,-1,-1,-1,-1],"split_conditions":[1.88E1,6.55E-1,6.71E-1,1.52E1,-4.389639E-1,6.31E-1,7.7E-1,4.01E-1,5.15E-1,4.33E-1,6.47E-1,7.13E-1,-0E0,-0E0,8.6005765E-1,4.72E-1,5.5E-1,3.34E2,-2.800248E-1,1.263374E0,6.68E-1,-7.27961E-1,-3.7555367E-1,1.6535732E-1,4.86331E-1,-1.5938812E-1,-0E0,1.1867242E-1,-0E0,-0E0,8.926959E-2],"split_indices":[10,4,4,10,0,4,4,4,4,4,4,4,0,0,0,4,4,9,0,0,4,0,0,0,0,0,0,0,0,0,0],"split_type":[0,0,0,0,0,0,0,0,0,0,0,0,0,0,0,0,0,0,0,0,0,0,0,0,0,0,0,0,0,0,0],"sum_hessian":[4.04E2,2.05E2,1.99E2,1.9E2,1.5E1,1.34E2,6.5E1,3.8E1,1.52E2,1.22E2,1.2E1,5.8E1,7E0,3E0,3.5E1,1.24E2,2.8E1,2E1,1.02E2,4E0,8E0,3.1E1,2.7E1,8E1,4.4E1,2.5E1,3E0,1.5E1,5E0,5E0,3E0],"tree_param":{"num_deleted":"0","num_feature":"13","num_nodes":"31","size_leaf_vector":"1"}},{"base_weights":[3.435634E-3,9.630463E0,-1.8359386E0,1.4910544E1,6.4242735E0,4.5647874E-2,-4.6629395E0,1.6089171E0,-0E0,9.9443334E-1,4.116768E-1,2.411602E0,-8.4840006E-1,-3.0651207E0,-6.465676E-1,4.663197E0,1.9327874E-1,6.759493E-1,-1.0720034E0,-3.2094996E0,-0E0,8.3883965E-1,1.7790203E-1,6.312922E-2,-0E0,-2.1835323E-2,-1.7718758E-1,-0E0,-3.264391E-1],"categories":[],"categories_nodes":[],"categories_segments":[],"categories_sizes":[],"default_left":[0,0,0,0,0,0,0,0,0,0,0,0,0,0,0,0,0,0,0,0,0,0,0,0,0,0,0,0,0],"id":8,"left_children":[1,3,5,7,9,11,13,-1,-1,-1,-1,15,17,19,-1,21,23,-1,25,27,-1,-1,-1,-1,-1,-1,-1,-1,-1],"loss_changes":[7.267247E3,8.0817236E2,1.8549296E3,3.2262988E2,1.758429E2,4.470791E2,2.8237573E2,0E0,0E0,0E0,0E0,2.4522519E2,1.9703812E2,6.0361084E1,0E0,1.7349426E2,6.3392954E0,0E0,6.5145615E1,6.050415E0,0E0,0E0,0E0,0E0,0E0,0E0,0E0,0E0,0E0],"parents":[2147483647,0,0,1,1,2,2,3,3,4,4,5,5,6,6,11,11,12,12,13,13,15,15,16,16,18,18,19,19],"right_children":[2,4,6,8,10,12,14,-1,-1,-1,-1,16,18,20,-1,22,24,-1,26,28,-1,-1,-1,-1,-1,-1,-1,-1,-1],"split_conditions":[5.5E0,3.6526E0,1.443E1,5.19E0,3.95E0,7.7E0,1.988E1,1.6089171E0,-0E0,9.9443334E-1,4.116768E-1,4.3996E0,1.3325E0,1.978E1,-6.465676E-1,2.65E2,6.68E0,6.759493E-1,3.615E0,1.93E2,-0E0,8.3883965E-1,1.7790203E-1,6.312922E-2,-0E0,-2.1835323E-2,-1.7718758E-1,-0E0,-3.264391E-1],"split_indices":[12,7,12,12,12,12,12,0,0,0,0,7,7,12,0,9,12,0,7,9,0,0,0,0,0,0,0,0,0],"split_type":[0,0,0,0,0,0,0,0,0,0,0,0,0,0,0,0,0,0,0,0,0,0,0,0,0,0,0,0,0],"sum_hessian":[4.04E2,6.5E1,3.39E2,2.2E1,4.3E1,2.02E2,1.37E2,2E1,2E0,1.4E1,2.9E1,5.8E1,1.44E2,7.7E1,6E1,2.6E1,3.2E1,2E0,1.42E2,7.6E1,1E0,9E0,1.7E1,1.8E1,1.4E1,7.1E1,7.1E1,2E0,7.4E1],"tree_param":{"num_deleted":"0","num_feature":"13","num_nodes":"29","size_leaf_vector":"1"}},{"base_weights":[1.8201103E-2,-1.6276227E0,1.0482846E1,-0E0,-4.2226973E0,6.2008524E0,1.4800499E1,4.602446E0,-6.139598E-1,-2.7649016E0,-5.829707E-1,6.475064E-1,-0E0,1.5362575E0,-0E0,3.3245795E0,1.0383855E0,-1.6494685E0,2.1378261E-1,-2.9072301E0,-0E0,-0E0,4.7998568E-1,-2.3590104E-1,1.9108538E-1,-1.7641935E-2,1.3143872E-1,-2.979234E-1,-0E0],"categories":[],"categories_nodes":[],"categories_segments":[],"categories_sizes":[],"default_left":[0,0,0,0,0,0,0,0,0,0,0,0,0,0,0,0,0,0,0,0,0,0,0,0,0,0,0,0,0],"id":9,"left_children":[1,3,5,7,9,11,13,15,17,19,-1,-1,-1,-1,-1,21,-1,23,25,27,-1,-1,-1,-1,-1,-1,-1,-1,-1],"loss_changes":[7.080914E3,1.5156664E3,7.3354785E2,6.4279376E2,2.1888403E2,6.582593E1,2.0479297E2,2.7866272E1,1.7585077E2,5.371051E1,0E0,0E0,0E0,0E0,0E0,1.1533594E2,0E0,2.338209E2,5.4557365E1,2.3336548E1,0E0,0E0,0E0,0E0,0E0,0E0,0E0,0E0,0E0],"parents":[2147483647,0,0,1,1,2,2,3,3,4,4,5,5,6,6,7,7,8,8,9,9,15,15,17,17,18,18,19,19],"right_children":[2,4,6,8,10,12,14,16,18,20,-1,-1,-1,-1,-1,22,-1,24,26,28,-1,-1,-1,-1,-1,-1,-1,-1,-1],"split_conditions":[7.016E0,1.443E1,7.489E0,5.12E0,1.988E1,1.128E1,8.78E0,8E0,6.144E0,1.978E1,-5.829707E-1,6.475064E-1,-0E0,1.5362575E0,-0E0,6.649E0,1.0383855E0,2.4E1,6.549E0,6.976E0,-0E0,-0E0,4.7998568E-1,-2.3590104E-1,1.9108538E-1,-1.7641935E-2,1.3143872E-1,-2.979234E-1,-0E0],"split_indices":[5,12,5,12,12,12,5,8,5,12,0,0,0,0,0,5,0,8,5,5,0,0,0,0,0,0,0,0,0],"split_type":[0,0,0,0,0,0,0,0,0,0,0,0,0,0,0,0,0,0,0,0,0,0,0,0,0,0,0,0,0],"sum_hessian":[4.04E2,3.49E2,5.5E1,2.13E2,1.36E2,3E1,2.5E1,2.6E1,1.87E2,7.6E1,6E1,2.9E1,1E0,2.4E1,1E0,2.4E1,2E0,8.8E1,9.9E1,7.5E1,1E0,8E0,1.6E1,7.6E1,1.2E1,6.7E1,3.2E1,7.4E1,1E0],"tree_param":{"num_deleted":"0","num_feature":"13","num_nodes":"29","size_leaf_vector":"1"}}]},"name":"gbtree"},"learner_model_param":{"base_score":"[2.2796535E1]","boost_from_average":"1","num_class":"0","num_feature":"13","num_target":"1"},"objective":{"name":"reg:squarederror","reg_loss_param":{"scale_pos_weight":"1"}}},"version":[3,1,3]}